<?xml version="1.0"?>
<opencv_storage>
<cascade>
  <stageType>BOOST</stageType>
  <featureType>HAAR</featureType>
  <height>24</height>
  <width>24</width>
  <stageParams>
    <boostType>GAB</boostType>
    <minHitRate>9.9500000476837158e-01</minHitRate>
    <maxFalseAlarm>5.0000000000000000e-01</maxFalseAlarm>
    <weightTrimRate>9.4999999999999996e-01</weightTrimRate>
    <maxDepth>1</maxDepth>
    <maxWeakCount>100</maxWeakCount></stageParams>
  <featureParams>
    <maxCatCount>0</maxCatCount>
    <featSize>1</featSize>
    <mode>BASIC</mode></featureParams>
  <stageNum>12</stageNum>
  <stages>
    <!-- stage 0 -->
    <_>
      <maxWeakCount>1</maxWeakCount>
      <stageThreshold>8.4615385532379150e-01</stageThreshold>
      <weakClassifiers>
        <_>
          <internalNodes>
            0 -1 8 -1.1082413792610168e-01</internalNodes>
          <leafValues>
            8.4615385532379150e-01 -1.</leafValues></_></weakClassifiers></_>
    <!-- stage 1 -->
    <_>
      <maxWeakCount>2</maxWeakCount>
      <stageThreshold>-1.3621856272220612e-01</stageThreshold>
      <weakClassifiers>
        <_>
          <internalNodes>
            0 -1 18 -1.0027135908603668e-01</internalNodes>
          <leafValues>
            8.3999997377395630e-01 -9.6363633871078491e-01</leafValues></_>
        <_>
          <internalNodes>
            0 -1 22 -2.6189502328634262e-02</internalNodes>
          <leafValues>
            8.2741779088973999e-01 -9.6478867530822754e-01</leafValues></_></weakClassifiers></_>
    <!-- stage 2 -->
    <_>
      <maxWeakCount>2</maxWeakCount>
      <stageThreshold>-1.2238837033510208e-01</stageThreshold>
      <weakClassifiers>
        <_>
          <internalNodes>
            0 -1 3 1.0394777357578278e-01</internalNodes>
          <leafValues>
            -8.3606559038162231e-01 1.</leafValues></_>
        <_>
          <internalNodes>
            0 -1 0 -4.6243613958358765e-01</internalNodes>
          <leafValues>
            -9.6594512462615967e-01 7.1367722749710083e-01</leafValues></_></weakClassifiers></_>
    <!-- stage 3 -->
    <_>
      <maxWeakCount>2</maxWeakCount>
      <stageThreshold>-1.3161046802997589e-01</stageThreshold>
      <weakClassifiers>
        <_>
          <internalNodes>
            0 -1 19 4.5225271023809910e-03</internalNodes>
          <leafValues>
            -9.6226418018341064e-01 7.0370370149612427e-01</leafValues></_>
        <_>
          <internalNodes>
            0 -1 15 3.9247151464223862e-02</internalNodes>
          <leafValues>
            -8.3531415462493896e-01 9.3582147359848022e-01</leafValues></_></weakClassifiers></_>
    <!-- stage 4 -->
    <_>
      <maxWeakCount>2</maxWeakCount>
      <stageThreshold>-2.4592819809913635e-01</stageThreshold>
      <weakClassifiers>
        <_>
          <internalNodes>
            0 -1 21 -5.7857953011989594e-02</internalNodes>
          <leafValues>
            4.6666666865348816e-01 -9.2000001668930054e-01</leafValues></_>
        <_>
          <internalNodes>
            0 -1 14 2.8009195812046528e-03</internalNodes>
          <leafValues>
            -7.1259486675262451e-01 7.4761980772018433e-01</leafValues></_></weakClassifiers></_>
    <!-- stage 5 -->
    <_>
      <maxWeakCount>2</maxWeakCount>
      <stageThreshold>-5.7701773941516876e-02</stageThreshold>
      <weakClassifiers>
        <_>
          <internalNodes>
            0 -1 16 1.9762762822210789e-03</internalNodes>
          <leafValues>
            -8.3333331346511841e-01 8.9999997615814209e-01</leafValues></_>
        <_>
          <internalNodes>
            0 -1 13 -3.4486283548176289e-03</internalNodes>
          <leafValues>
            7.7563154697418213e-01 -8.4495306015014648e-01</leafValues></_></weakClassifiers></_>
    <!-- stage 6 -->
    <_>
      <maxWeakCount>2</maxWeakCount>
      <stageThreshold>-2.7443784475326538e-01</stageThreshold>
      <weakClassifiers>
        <_>
          <internalNodes>
            0 -1 9 1.0542818158864975e-01</internalNodes>
          <leafValues>
            -8.0327868461608887e-01 8.9473682641983032e-01</leafValues></_>
        <_>
          <internalNodes>
            0 -1 6 -1.6898773610591888e-01</internalNodes>
          <leafValues>
            -9.6147394180297852e-01 5.2884083986282349e-01</leafValues></_></weakClassifiers></_>
    <!-- stage 7 -->
    <_>
      <maxWeakCount>3</maxWeakCount>
      <stageThreshold>-7.4073123931884766e-01</stageThreshold>
      <weakClassifiers>
        <_>
          <internalNodes>
            0 -1 4 3.9775185286998749e-02</internalNodes>
          <leafValues>
            -7.7419352531433105e-01 8.8888889551162720e-01</leafValues></_>
        <_>
          <internalNodes>
            0 -1 10 -3.2368406653404236e-02</internalNodes>
          <leafValues>
            8.5688018798828125e-01 -7.2419041395187378e-01</leafValues></_>
        <_>
          <internalNodes>
            0 -1 11 1.9971090368926525e-03</internalNodes>
          <leafValues>
            -7.7900052070617676e-01 7.5765269994735718e-01</leafValues></_></weakClassifiers></_>
    <!-- stage 8 -->
    <_>
      <maxWeakCount>2</maxWeakCount>
      <stageThreshold>-1.3803109526634216e-01</stageThreshold>
      <weakClassifiers>
        <_>
          <internalNodes>
            0 -1 5 -8.4246192127466202e-03</internalNodes>
          <leafValues>
            8.7500000000000000e-01 -7.1875000000000000e-01</leafValues></_>
        <_>
          <internalNodes>
            0 -1 7 -2.3975603282451630e-02</internalNodes>
          <leafValues>
            5.8071887493133545e-01 -9.2964875698089600e-01</leafValues></_></weakClassifiers></_>
    <!-- stage 9 -->
    <_>
      <maxWeakCount>1</maxWeakCount>
      <stageThreshold>2.3076923191547394e-01</stageThreshold>
      <weakClassifiers>
        <_>
          <internalNodes>
            0 -1 1 -1.8348008394241333e-02</internalNodes>
          <leafValues>
            -1. 2.3076923191547394e-01</leafValues></_></weakClassifiers></_>
    <!-- stage 10 -->
    <_>
      <maxWeakCount>2</maxWeakCount>
      <stageThreshold>-3.2963162660598755e-01</stageThreshold>
      <weakClassifiers>
        <_>
          <internalNodes>
            0 -1 17 -2.7851015329360962e-02</internalNodes>
          <leafValues>
            4.0000000596046448e-01 -8.7999999523162842e-01</leafValues></_>
        <_>
          <internalNodes>
            0 -1 2 4.5027751475572586e-03</internalNodes>
          <leafValues>
            -7.2963160276412964e-01 7.0252233743667603e-01</leafValues></_></weakClassifiers></_>
    <!-- stage 11 -->
    <_>
      <maxWeakCount>2</maxWeakCount>
      <stageThreshold>-4.9724135547876358e-02</stageThreshold>
      <weakClassifiers>
        <_>
          <internalNodes>
            0 -1 12 2.5067292153835297e-02</internalNodes>
          <leafValues>
            -6.7164176702499390e-01 1.</leafValues></_>
        <_>
          <internalNodes>
            0 -1 20 -1.2153579294681549e-01</internalNodes>
          <leafValues>
            6.2191766500473022e-01 -8.2479423284530640e-01</leafValues></_></weakClassifiers></_></stages>
  <features>
    <_>
      <rects>
        <_>
          0 6 24 10 -1.</_>
        <_>
          8 6 8 10 2.</_></rects>
      <tilted>0</tilted></_>
    <_>
      <rects>
        <_>
          0 10 8 12 -1.</_>
        <_>
          0 16 8 6 2.</_></rects>
      <tilted>0</tilted></_>
    <_>
      <rects>
        <_>
          0 18 3 6 -1.</_>
        <_>
          0 21 3 3 2.</_></rects>
      <tilted>0</tilted></_>
    <_>
      <rects>
        <_>
          2 6 8 15 -1.</_>
        <_>
          6 6 4 15 2.</_></rects>
      <tilted>0</tilted></_>
    <_>
      <rects>
        <_>
          3 0 6 12 -1.</_>
        <_>
          3 0 3 6 2.</_>
        <_>
          6 6 3 6 2.</_></rects>
      <tilted>0</tilted></_>
    <_>
      <rects>
        <_>
          3 10 20 2 -1.</_>
        <_>
          3 11 20 1 2.</_></rects>
      <tilted>0</tilted></_>
    <_>
      <rects>
        <_>
          4 0 9 8 -1.</_>
        <_>
          7 0 3 8 2.</_></rects>
      <tilted>0</tilted></_>
    <_>
      <rects>
        <_>
          5 16 6 6 -1.</_>
        <_>
          5 19 6 3 2.</_></rects>
      <tilted>0</tilted></_>
    <_>
      <rects>
        <_>
          6 12 12 12 -1.</_>
        <_>
          6 18 12 6 2.</_></rects>
      <tilted>0</tilted></_>
    <_>
      <rects>
        <_>
          7 1 9 12 -1.</_>
        <_>
          7 7 9 6 2.</_></rects>
      <tilted>0</tilted></_>
    <_>
      <rects>
        <_>
          7 9 9 1 -1.</_>
        <_>
          10 9 3 1 2.</_></rects>
      <tilted>0</tilted></_>
    <_>
      <rects>
        <_>
          8 11 2 6 -1.</_>
        <_>
          8 11 1 3 2.</_>
        <_>
          9 14 1 3 2.</_></rects>
      <tilted>0</tilted></_>
    <_>
      <rects>
        <_>
          8 11 10 4 -1.</_>
        <_>
          8 11 5 2 2.</_>
        <_>
          13 13 5 2 2.</_></rects>
      <tilted>0</tilted></_>
    <_>
      <rects>
        <_>
          9 9 4 3 -1.</_>
        <_>
          11 9 2 3 2.</_></rects>
      <tilted>0</tilted></_>
    <_>
      <rects>
        <_>
          9 12 1 6 -1.</_>
        <_>
          9 15 1 3 2.</_></rects>
      <tilted>0</tilted></_>
    <_>
      <rects>
        <_>
          12 2 9 6 -1.</_>
        <_>
          12 5 9 3 2.</_></rects>
      <tilted>0</tilted></_>
    <_>
      <rects>
        <_>
          13 15 6 3 -1.</_>
        <_>
          16 15 3 3 2.</_></rects>
      <tilted>0</tilted></_>
    <_>
      <rects>
        <_>
          14 2 10 6 -1.</_>
        <_>
          14 2 5 3 2.</_>
        <_>
          19 5 5 3 2.</_></rects>
      <tilted>0</tilted></_>
    <_>
      <rects>
        <_>
          14 4 8 16 -1.</_>
        <_>
          18 4 4 16 2.</_></rects>
      <tilted>0</tilted></_>
    <_>
      <rects>
        <_>
          14 7 8 4 -1.</_>
        <_>
          14 7 4 2 2.</_>
        <_>
          18 9 4 2 2.</_></rects>
      <tilted>0</tilted></_>
    <_>
      <rects>
        <_>
          15 0 8 18 -1.</_>
        <_>
          19 0 4 18 2.</_></rects>
      <tilted>0</tilted></_>
    <_>
      <rects>
        <_>
          15 7 6 11 -1.</_>
        <_>
          18 7 3 11 2.</_></rects>
      <tilted>0</tilted></_>
    <_>
      <rects>
        <_>
          17 13 6 7 -1.</_>
        <_>
          20 13 3 7 2.</_></rects>
      <tilted>0</tilted></_></features></cascade>
</opencv_storage>
