<?xml version="1.0"?>
<opencv_storage>
<cascade>
  <stageType>BOOST</stageType>
  <featureType>HAAR</featureType>
  <height>24</height>
  <width>24</width>
  <stageParams>
    <boostType>GAB</boostType>
    <minHitRate>9.9500000476837158e-01</minHitRate>
    <maxFalseAlarm>5.0000000000000000e-01</maxFalseAlarm>
    <weightTrimRate>9.4999999999999996e-01</weightTrimRate>
    <maxDepth>1</maxDepth>
    <maxWeakCount>100</maxWeakCount></stageParams>
  <featureParams>
    <maxCatCount>0</maxCatCount>
    <featSize>1</featSize>
    <mode>BASIC</mode></featureParams>
  <stageNum>20</stageNum>
  <stages>
    <!-- stage 0 -->
    <_>
      <maxWeakCount>1</maxWeakCount>
      <stageThreshold>9.8017841577529907e-01</stageThreshold>
      <weakClassifiers>
        <_>
          <internalNodes>
            0 -1 44 4.1005428880453110e-02</internalNodes>
          <leafValues>
            -9.5744681358337402e-01 9.8017841577529907e-01</leafValues></_></weakClassifiers></_>
    <!-- stage 1 -->
    <_>
      <maxWeakCount>1</maxWeakCount>
      <stageThreshold>9.5307916402816772e-01</stageThreshold>
      <weakClassifiers>
        <_>
          <internalNodes>
            0 -1 48 -2.1245315670967102e-02</internalNodes>
          <leafValues>
            9.5307916402816772e-01 -1.</leafValues></_></weakClassifiers></_>
    <!-- stage 2 -->
    <_>
      <maxWeakCount>1</maxWeakCount>
      <stageThreshold>9.5499020814895630e-01</stageThreshold>
      <weakClassifiers>
        <_>
          <internalNodes>
            0 -1 57 -3.4407958388328552e-02</internalNodes>
          <leafValues>
            9.5499020814895630e-01 -1.</leafValues></_></weakClassifiers></_>
    <!-- stage 3 -->
    <_>
      <maxWeakCount>1</maxWeakCount>
      <stageThreshold>9.4731706380844116e-01</stageThreshold>
      <weakClassifiers>
        <_>
          <internalNodes>
            0 -1 12 2.5578331202268600e-02</internalNodes>
          <leafValues>
            -9.3333333730697632e-01 9.4731706380844116e-01</leafValues></_></weakClassifiers></_>
    <!-- stage 4 -->
    <_>
      <maxWeakCount>5</maxWeakCount>
      <stageThreshold>5.9287834167480469e-01</stageThreshold>
      <weakClassifiers>
        <_>
          <internalNodes>
            0 -1 29 -5.5297758430242538e-02</internalNodes>
          <leafValues>
            -1. 9.2664092779159546e-01</leafValues></_>
        <_>
          <internalNodes>
            0 -1 20 -1.1895835399627686e-02</internalNodes>
          <leafValues>
            9.3010514974594116e-01 -2.8563567996025085e-01</leafValues></_>
        <_>
          <internalNodes>
            0 -1 51 -4.5808674767613411e-03</internalNodes>
          <leafValues>
            -5.4514425992965698e-01 8.6268949508666992e-01</leafValues></_>
        <_>
          <internalNodes>
            0 -1 85 2.1818676963448524e-02</internalNodes>
          <leafValues>
            -2.8363245725631714e-01 9.5625352859497070e-01</leafValues></_>
        <_>
          <internalNodes>
            0 -1 43 -3.9628580212593079e-02</internalNodes>
          <leafValues>
            8.3678799867630005e-01 -4.3509107828140259e-01</leafValues></_></weakClassifiers></_>
    <!-- stage 5 -->
    <_>
      <maxWeakCount>5</maxWeakCount>
      <stageThreshold>4.5365425944328308e-01</stageThreshold>
      <weakClassifiers>
        <_>
          <internalNodes>
            0 -1 1 -1.7559503018856049e-01</internalNodes>
          <leafValues>
            -1. 9.2463767528533936e-01</leafValues></_>
        <_>
          <internalNodes>
            0 -1 10 -2.2375918924808502e-03</internalNodes>
          <leafValues>
            9.1693723201751709e-01 -2.8773620724678040e-01</leafValues></_>
        <_>
          <internalNodes>
            0 -1 84 1.6380675137042999e-02</internalNodes>
          <leafValues>
            -3.3111178874969482e-01 9.0382379293441772e-01</leafValues></_>
        <_>
          <internalNodes>
            0 -1 36 -2.8735557571053505e-02</internalNodes>
          <leafValues>
            9.2022955417633057e-01 -3.1299933791160583e-01</leafValues></_>
        <_>
          <internalNodes>
            0 -1 72 -8.7561719119548798e-03</internalNodes>
          <leafValues>
            -7.7407169342041016e-01 5.7061386108398438e-01</leafValues></_></weakClassifiers></_>
    <!-- stage 6 -->
    <_>
      <maxWeakCount>4</maxWeakCount>
      <stageThreshold>7.1794915199279785e-01</stageThreshold>
      <weakClassifiers>
        <_>
          <internalNodes>
            0 -1 81 9.5831352518871427e-04</internalNodes>
          <leafValues>
            9.2996108531951904e-01 -1.</leafValues></_>
        <_>
          <internalNodes>
            0 -1 14 -9.3194525688886642e-03</internalNodes>
          <leafValues>
            -3.3398708701133728e-01 9.0473634004592896e-01</leafValues></_>
        <_>
          <internalNodes>
            0 -1 8 -1.7139002680778503e-02</internalNodes>
          <leafValues>
            9.0664309263229370e-01 -3.6898824572563171e-01</leafValues></_>
        <_>
          <internalNodes>
            0 -1 78 2.6083775446750224e-04</internalNodes>
          <leafValues>
            4.9096336960792542e-01 -7.0308256149291992e-01</leafValues></_></weakClassifiers></_>
    <!-- stage 7 -->
    <_>
      <maxWeakCount>2</maxWeakCount>
      <stageThreshold>1.6768047809600830e+00</stageThreshold>
      <weakClassifiers>
        <_>
          <internalNodes>
            0 -1 0 2.1313713490962982e-01</internalNodes>
          <leafValues>
            9.2599803209304810e-01 -1.</leafValues></_>
        <_>
          <internalNodes>
            0 -1 38 -6.7577220033854246e-04</internalNodes>
          <leafValues>
            -9.2450010776519775e-01 7.5080668926239014e-01</leafValues></_></weakClassifiers></_>
    <!-- stage 8 -->
    <_>
      <maxWeakCount>4</maxWeakCount>
      <stageThreshold>5.8100187778472900e-01</stageThreshold>
      <weakClassifiers>
        <_>
          <internalNodes>
            0 -1 73 1.2371014058589935e-01</internalNodes>
          <leafValues>
            9.2759293317794800e-01 -1.</leafValues></_>
        <_>
          <internalNodes>
            0 -1 86 -2.2276697680354118e-02</internalNodes>
          <leafValues>
            -5.7825279235839844e-01 8.3817172050476074e-01</leafValues></_>
        <_>
          <internalNodes>
            0 -1 4 -2.8743486851453781e-02</internalNodes>
          <leafValues>
            8.7985026836395264e-01 -4.4866970181465149e-01</leafValues></_>
        <_>
          <internalNodes>
            0 -1 20 -1.2095656245946884e-02</internalNodes>
          <leafValues>
            6.8033146858215332e-01 -5.9204590320587158e-01</leafValues></_></weakClassifiers></_>
    <!-- stage 9 -->
    <_>
      <maxWeakCount>5</maxWeakCount>
      <stageThreshold>-1.3613532483577728e-01</stageThreshold>
      <weakClassifiers>
        <_>
          <internalNodes>
            0 -1 60 -8.1029068678617477e-04</internalNodes>
          <leafValues>
            -4.8387095332145691e-01 9.3452382087707520e-01</leafValues></_>
        <_>
          <internalNodes>
            0 -1 22 4.6467803418636322e-02</internalNodes>
          <leafValues>
            -6.0971736907958984e-01 8.2456040382385254e-01</leafValues></_>
        <_>
          <internalNodes>
            0 -1 87 1.0490439832210541e-02</internalNodes>
          <leafValues>
            -5.1177626848220825e-01 7.7845519781112671e-01</leafValues></_>
        <_>
          <internalNodes>
            0 -1 16 -2.0362368226051331e-01</internalNodes>
          <leafValues>
            -9.0620332956314087e-01 4.4616952538490295e-01</leafValues></_>
        <_>
          <internalNodes>
            0 -1 18 -5.0933420658111572e-02</internalNodes>
          <leafValues>
            8.3515638113021851e-01 -4.1121801733970642e-01</leafValues></_></weakClassifiers></_>
    <!-- stage 10 -->
    <_>
      <maxWeakCount>3</maxWeakCount>
      <stageThreshold>5.7679837942123413e-01</stageThreshold>
      <weakClassifiers>
        <_>
          <internalNodes>
            0 -1 24 -1.3057106733322144e-01</internalNodes>
          <leafValues>
            -8.8888889551162720e-01 9.2330384254455566e-01</leafValues></_>
        <_>
          <internalNodes>
            0 -1 53 -1.9034350407309830e-04</internalNodes>
          <leafValues>
            -4.5624062418937683e-01 7.7116721868515015e-01</leafValues></_>
        <_>
          <internalNodes>
            0 -1 83 2.0529013127088547e-02</internalNodes>
          <leafValues>
            -5.3973841667175293e-01 6.9452005624771118e-01</leafValues></_></weakClassifiers></_>
    <!-- stage 11 -->
    <_>
      <maxWeakCount>7</maxWeakCount>
      <stageThreshold>3.8443276286125183e-01</stageThreshold>
      <weakClassifiers>
        <_>
          <internalNodes>
            0 -1 56 3.1989686191082001e-02</internalNodes>
          <leafValues>
            9.2482692003250122e-01 -8.0000001192092896e-01</leafValues></_>
        <_>
          <internalNodes>
            0 -1 9 -3.6895070225000381e-03</internalNodes>
          <leafValues>
            7.9009240865707397e-01 -3.0122804641723633e-01</leafValues></_>
        <_>
          <internalNodes>
            0 -1 13 -3.0360300093889236e-02</internalNodes>
          <leafValues>
            6.4399975538253784e-01 -4.7779068350791931e-01</leafValues></_>
        <_>
          <internalNodes>
            0 -1 62 -7.0266122929751873e-04</internalNodes>
          <leafValues>
            7.4781411886215210e-01 -3.6668759584426880e-01</leafValues></_>
        <_>
          <internalNodes>
            0 -1 25 -1.3016808032989502e-01</internalNodes>
          <leafValues>
            -9.1608601808547974e-01 3.8821169734001160e-01</leafValues></_>
        <_>
          <internalNodes>
            0 -1 31 4.9065649509429932e-02</internalNodes>
          <leafValues>
            -4.0947794914245605e-01 7.6962238550186157e-01</leafValues></_>
        <_>
          <internalNodes>
            0 -1 40 -1.0969119612127542e-03</internalNodes>
          <leafValues>
            6.6126102209091187e-01 -4.8792326450347900e-01</leafValues></_></weakClassifiers></_>
    <!-- stage 12 -->
    <_>
      <maxWeakCount>6</maxWeakCount>
      <stageThreshold>5.9739416837692261e-01</stageThreshold>
      <weakClassifiers>
        <_>
          <internalNodes>
            0 -1 21 -1.8192821741104126e-01</internalNodes>
          <leafValues>
            -1. 9.1715973615646362e-01</leafValues></_>
        <_>
          <internalNodes>
            0 -1 17 -3.6184987425804138e-01</internalNodes>
          <leafValues>
            -6.9855844974517822e-01 7.2735869884490967e-01</leafValues></_>
        <_>
          <internalNodes>
            0 -1 6 -1.8938381224870682e-02</internalNodes>
          <leafValues>
            6.5971744060516357e-01 -5.6672966480255127e-01</leafValues></_>
        <_>
          <internalNodes>
            0 -1 70 4.6541748452000320e-04</internalNodes>
          <leafValues>
            -3.7805190682411194e-01 7.6157975196838379e-01</leafValues></_>
        <_>
          <internalNodes>
            0 -1 82 1.9930773414671421e-03</internalNodes>
          <leafValues>
            4.6736201643943787e-01 -6.3352739810943604e-01</leafValues></_>
        <_>
          <internalNodes>
            0 -1 75 2.3147319443523884e-03</internalNodes>
          <leafValues>
            -3.5934680700302124e-01 8.5621243715286255e-01</leafValues></_></weakClassifiers></_>
    <!-- stage 13 -->
    <_>
      <maxWeakCount>7</maxWeakCount>
      <stageThreshold>4.3014687299728394e-01</stageThreshold>
      <weakClassifiers>
        <_>
          <internalNodes>
            0 -1 58 1.6437096055597067e-03</internalNodes>
          <leafValues>
            9.1707795858383179e-01 -1.</leafValues></_>
        <_>
          <internalNodes>
            0 -1 11 -1.5099546313285828e-01</internalNodes>
          <leafValues>
            7.4299800395965576e-01 -5.4376459121704102e-01</leafValues></_>
        <_>
          <internalNodes>
            0 -1 26 1.2382412329316139e-02</internalNodes>
          <leafValues>
            -3.8545432686805725e-01 6.2022083997726440e-01</leafValues></_>
        <_>
          <internalNodes>
            0 -1 80 4.4369028182700276e-04</internalNodes>
          <leafValues>
            3.7836700677871704e-01 -8.9413595199584961e-01</leafValues></_>
        <_>
          <internalNodes>
            0 -1 41 1.1371392756700516e-02</internalNodes>
          <leafValues>
            -3.3189576864242554e-01 9.6138399839401245e-01</leafValues></_>
        <_>
          <internalNodes>
            0 -1 63 -8.5441197734326124e-04</internalNodes>
          <leafValues>
            7.8960084915161133e-01 -3.0466115474700928e-01</leafValues></_>
        <_>
          <internalNodes>
            0 -1 71 1.7160414718091488e-03</internalNodes>
          <leafValues>
            -3.5485649108886719e-01 7.0047771930694580e-01</leafValues></_></weakClassifiers></_>
    <!-- stage 14 -->
    <_>
      <maxWeakCount>8</maxWeakCount>
      <stageThreshold>2.5926554203033447e-01</stageThreshold>
      <weakClassifiers>
        <_>
          <internalNodes>
            0 -1 77 -3.5092771053314209e-01</internalNodes>
          <leafValues>
            -1. 9.1881185770034790e-01</leafValues></_>
        <_>
          <internalNodes>
            0 -1 92 -6.1038270592689514e-02</internalNodes>
          <leafValues>
            7.6175218820571899e-01 -5.3464961051940918e-01</leafValues></_>
        <_>
          <internalNodes>
            0 -1 49 -1.3795730192214251e-03</internalNodes>
          <leafValues>
            9.0974110364913940e-01 -2.4120020866394043e-01</leafValues></_>
        <_>
          <internalNodes>
            0 -1 74 6.3613519072532654e-02</internalNodes>
          <leafValues>
            -4.7831323742866516e-01 6.3694214820861816e-01</leafValues></_>
        <_>
          <internalNodes>
            0 -1 19 -1.8551809713244438e-02</internalNodes>
          <leafValues>
            5.8243578672409058e-01 -4.8827069997787476e-01</leafValues></_>
        <_>
          <internalNodes>
            0 -1 37 -2.6389476843178272e-03</internalNodes>
          <leafValues>
            9.0184366703033447e-01 -3.0334323644638062e-01</leafValues></_>
        <_>
          <internalNodes>
            0 -1 62 -3.3993581309914589e-03</internalNodes>
          <leafValues>
            9.0859681367874146e-01 -2.3939009010791779e-01</leafValues></_>
        <_>
          <internalNodes>
            0 -1 30 -4.1360320756211877e-04</internalNodes>
          <leafValues>
            -5.3024441003799438e-01 4.7763386368751526e-01</leafValues></_></weakClassifiers></_>
    <!-- stage 15 -->
    <_>
      <maxWeakCount>6</maxWeakCount>
      <stageThreshold>1.0869684219360352e+00</stageThreshold>
      <weakClassifiers>
        <_>
          <internalNodes>
            0 -1 2 2.1402014791965485e-01</internalNodes>
          <leafValues>
            9.1658389568328857e-01 -1.</leafValues></_>
        <_>
          <internalNodes>
            0 -1 89 3.0406046425923705e-04</internalNodes>
          <leafValues>
            7.3808646202087402e-01 -4.1267266869544983e-01</leafValues></_>
        <_>
          <internalNodes>
            0 -1 46 -2.3985534906387329e-02</internalNodes>
          <leafValues>
            8.2156956195831299e-01 -2.6965826749801636e-01</leafValues></_>
        <_>
          <internalNodes>
            0 -1 27 3.4951969981193542e-02</internalNodes>
          <leafValues>
            -4.7497057914733887e-01 6.1004143953323364e-01</leafValues></_>
        <_>
          <internalNodes>
            0 -1 3 -3.8848109543323517e-02</internalNodes>
          <leafValues>
            6.9775700569152832e-01 -4.2329519987106323e-01</leafValues></_>
        <_>
          <internalNodes>
            0 -1 66 3.0003609135746956e-03</internalNodes>
          <leafValues>
            -4.2525857686996460e-01 7.4292409420013428e-01</leafValues></_></weakClassifiers></_>
    <!-- stage 16 -->
    <_>
      <maxWeakCount>6</maxWeakCount>
      <stageThreshold>2.2989769279956818e-01</stageThreshold>
      <weakClassifiers>
        <_>
          <internalNodes>
            0 -1 32 -1.4661445748060942e-03</internalNodes>
          <leafValues>
            -6.2500000000000000e-01 9.1417163610458374e-01</leafValues></_>
        <_>
          <internalNodes>
            0 -1 45 -5.4644572082906961e-04</internalNodes>
          <leafValues>
            -4.4990479946136475e-01 6.8338370323181152e-01</leafValues></_>
        <_>
          <internalNodes>
            0 -1 76 -3.9504848420619965e-02</internalNodes>
          <leafValues>
            7.0585632324218750e-01 -3.0427482724189758e-01</leafValues></_>
        <_>
          <internalNodes>
            0 -1 33 1.3347452506422997e-02</internalNodes>
          <leafValues>
            -2.8670066595077515e-01 8.3921724557876587e-01</leafValues></_>
        <_>
          <internalNodes>
            0 -1 42 1.0781073942780495e-03</internalNodes>
          <leafValues>
            -3.5810247063636780e-01 8.7327206134796143e-01</leafValues></_>
        <_>
          <internalNodes>
            0 -1 70 4.8972450895234942e-04</internalNodes>
          <leafValues>
            -4.1857969760894775e-01 6.4111995697021484e-01</leafValues></_></weakClassifiers></_>
    <!-- stage 17 -->
    <_>
      <maxWeakCount>10</maxWeakCount>
      <stageThreshold>2.3284204304218292e-01</stageThreshold>
      <weakClassifiers>
        <_>
          <internalNodes>
            0 -1 23 -3.5101374983787537e-01</internalNodes>
          <leafValues>
            -1. 9.1053676605224609e-01</leafValues></_>
        <_>
          <internalNodes>
            0 -1 39 -5.1733400672674179e-02</internalNodes>
          <leafValues>
            6.9413965940475464e-01 -5.0071781873703003e-01</leafValues></_>
        <_>
          <internalNodes>
            0 -1 68 2.1568532101809978e-03</internalNodes>
          <leafValues>
            -2.0405136048793793e-01 9.1530257463455200e-01</leafValues></_>
        <_>
          <internalNodes>
            0 -1 88 -2.9678811552003026e-04</internalNodes>
          <leafValues>
            -6.7460858821868896e-01 4.3266698718070984e-01</leafValues></_>
        <_>
          <internalNodes>
            0 -1 7 -4.7091299295425415e-01</internalNodes>
          <leafValues>
            5.2986073493957520e-01 -4.8519605398178101e-01</leafValues></_>
        <_>
          <internalNodes>
            0 -1 61 4.4788699597120285e-03</internalNodes>
          <leafValues>
            -3.6905428767204285e-01 7.6700371503829956e-01</leafValues></_>
        <_>
          <internalNodes>
            0 -1 54 6.2060169875621796e-03</internalNodes>
          <leafValues>
            -3.7611934542655945e-01 6.0200721025466919e-01</leafValues></_>
        <_>
          <internalNodes>
            0 -1 47 -1.1518988758325577e-03</internalNodes>
          <leafValues>
            7.7297359704971313e-01 -3.7970900535583496e-01</leafValues></_>
        <_>
          <internalNodes>
            0 -1 52 -6.5672501921653748e-02</internalNodes>
          <leafValues>
            7.0704019069671631e-01 -2.8687074780464172e-01</leafValues></_>
        <_>
          <internalNodes>
            0 -1 79 -1.6075605526566505e-04</internalNodes>
          <leafValues>
            3.8871824741363525e-01 -6.5557700395584106e-01</leafValues></_></weakClassifiers></_>
    <!-- stage 18 -->
    <_>
      <maxWeakCount>8</maxWeakCount>
      <stageThreshold>8.7666511535644531e-02</stageThreshold>
      <weakClassifiers>
        <_>
          <internalNodes>
            0 -1 28 -4.5973467826843262e-01</internalNodes>
          <leafValues>
            -1. 9.1017961502075195e-01</leafValues></_>
        <_>
          <internalNodes>
            0 -1 55 -1.0112598538398743e-01</internalNodes>
          <leafValues>
            -9.2216777801513672e-01 6.4803200960159302e-01</leafValues></_>
        <_>
          <internalNodes>
            0 -1 15 -4.7307340428233147e-03</internalNodes>
          <leafValues>
            7.9031115770339966e-01 -2.4150562286376953e-01</leafValues></_>
        <_>
          <internalNodes>
            0 -1 59 -8.3323158323764801e-02</internalNodes>
          <leafValues>
            3.9428776502609253e-01 -6.3967651128768921e-01</leafValues></_>
        <_>
          <internalNodes>
            0 -1 64 6.2938977498561144e-04</internalNodes>
          <leafValues>
            -3.1523233652114868e-01 8.2394909858703613e-01</leafValues></_>
        <_>
          <internalNodes>
            0 -1 90 3.6258800537325442e-04</internalNodes>
          <leafValues>
            4.5802304148674011e-01 -6.0499399900436401e-01</leafValues></_>
        <_>
          <internalNodes>
            0 -1 67 -3.7560802884399891e-03</internalNodes>
          <leafValues>
            7.4016886949539185e-01 -4.1001620888710022e-01</leafValues></_>
        <_>
          <internalNodes>
            0 -1 69 2.8695729561150074e-03</internalNodes>
          <leafValues>
            -4.0930551290512085e-01 5.7818520069122314e-01</leafValues></_></weakClassifiers></_>
    <!-- stage 19 -->
    <_>
      <maxWeakCount>6</maxWeakCount>
      <stageThreshold>9.1994273662567139e-01</stageThreshold>
      <weakClassifiers>
        <_>
          <internalNodes>
            0 -1 5 -1.9088929891586304e-01</internalNodes>
          <leafValues>
            -1. 9.1182363033294678e-01</leafValues></_>
        <_>
          <internalNodes>
            0 -1 35 -2.1309898875188082e-04</internalNodes>
          <leafValues>
            -5.9185206890106201e-01 6.9431263208389282e-01</leafValues></_>
        <_>
          <internalNodes>
            0 -1 91 1.6385860741138458e-02</internalNodes>
          <leafValues>
            -3.8410720229148865e-01 8.1978321075439453e-01</leafValues></_>
        <_>
          <internalNodes>
            0 -1 34 3.1477031297981739e-03</internalNodes>
          <leafValues>
            4.7675463557243347e-01 -6.2188005447387695e-01</leafValues></_>
        <_>
          <internalNodes>
            0 -1 50 -1.6844025813043118e-03</internalNodes>
          <leafValues>
            8.3568471670150757e-01 -3.6412614583969116e-01</leafValues></_>
        <_>
          <internalNodes>
            0 -1 65 3.0383679550141096e-03</internalNodes>
          <leafValues>
            -3.2836097478866577e-01 8.6648011207580566e-01</leafValues></_></weakClassifiers></_></stages>
  <features>
    <_>
      <rects>
        <_>
          0 0 18 15 -1.</_>
        <_>
          9 0 9 15 2.</_></rects>
      <tilted>0</tilted></_>
    <_>
      <rects>
        <_>
          0 0 11 22 -1.</_>
        <_>
          0 11 11 11 2.</_></rects>
      <tilted>0</tilted></_>
    <_>
      <rects>
        <_>
          0 0 24 17 -1.</_>
        <_>
          12 0 12 17 2.</_></rects>
      <tilted>0</tilted></_>
    <_>
      <rects>
        <_>
          0 1 6 16 -1.</_>
        <_>
          3 1 3 16 2.</_></rects>
      <tilted>0</tilted></_>
    <_>
      <rects>
        <_>
          0 2 6 19 -1.</_>
        <_>
          3 2 3 19 2.</_></rects>
      <tilted>0</tilted></_>
    <_>
      <rects>
        <_>
          0 2 17 22 -1.</_>
        <_>
          0 13 17 11 2.</_></rects>
      <tilted>0</tilted></_>
    <_>
      <rects>
        <_>
          0 5 6 13 -1.</_>
        <_>
          3 5 3 13 2.</_></rects>
      <tilted>0</tilted></_>
    <_>
      <rects>
        <_>
          0 7 12 12 -1.</_>
        <_>
          4 7 4 12 2.</_></rects>
      <tilted>0</tilted></_>
    <_>
      <rects>
        <_>
          0 8 6 9 -1.</_>
        <_>
          3 8 3 9 2.</_></rects>
      <tilted>0</tilted></_>
    <_>
      <rects>
        <_>
          0 8 6 15 -1.</_>
        <_>
          3 8 3 15 2.</_></rects>
      <tilted>0</tilted></_>
    <_>
      <rects>
        <_>
          0 9 6 7 -1.</_>
        <_>
          3 9 3 7 2.</_></rects>
      <tilted>0</tilted></_>
    <_>
      <rects>
        <_>
          0 9 9 7 -1.</_>
        <_>
          3 9 3 7 2.</_></rects>
      <tilted>0</tilted></_>
    <_>
      <rects>
        <_>
          0 9 16 7 -1.</_>
        <_>
          8 9 8 7 2.</_></rects>
      <tilted>0</tilted></_>
    <_>
      <rects>
        <_>
          0 14 16 6 -1.</_>
        <_>
          0 14 8 3 2.</_>
        <_>
          8 17 8 3 2.</_></rects>
      <tilted>0</tilted></_>
    <_>
      <rects>
        <_>
          0 18 24 6 -1.</_>
        <_>
          0 21 24 3 2.</_></rects>
      <tilted>0</tilted></_>
    <_>
      <rects>
        <_>
          1 6 8 1 -1.</_>
        <_>
          5 6 4 1 2.</_></rects>
      <tilted>0</tilted></_>
    <_>
      <rects>
        <_>
          1 6 21 3 -1.</_>
        <_>
          1 7 21 1 2.</_></rects>
      <tilted>0</tilted></_>
    <_>
      <rects>
        <_>
          1 7 9 12 -1.</_>
        <_>
          1 11 9 4 2.</_></rects>
      <tilted>0</tilted></_>
    <_>
      <rects>
        <_>
          1 14 16 6 -1.</_>
        <_>
          1 14 8 3 2.</_>
        <_>
          9 17 8 3 2.</_></rects>
      <tilted>0</tilted></_>
    <_>
      <rects>
        <_>
          2 0 13 8 -1.</_>
        <_>
          2 4 13 4 2.</_></rects>
      <tilted>0</tilted></_>
    <_>
      <rects>
        <_>
          2 0 16 6 -1.</_>
        <_>
          2 3 16 3 2.</_></rects>
      <tilted>0</tilted></_>
    <_>
      <rects>
        <_>
          2 7 16 14 -1.</_>
        <_>
          2 14 16 7 2.</_></rects>
      <tilted>0</tilted></_>
    <_>
      <rects>
        <_>
          2 9 12 6 -1.</_>
        <_>
          8 9 6 6 2.</_></rects>
      <tilted>0</tilted></_>
    <_>
      <rects>
        <_>
          2 10 21 6 -1.</_>
        <_>
          9 10 7 6 2.</_></rects>
      <tilted>0</tilted></_>
    <_>
      <rects>
        <_>
          2 13 22 10 -1.</_>
        <_>
          13 13 11 10 2.</_></rects>
      <tilted>0</tilted></_>
    <_>
      <rects>
        <_>
          2 15 13 3 -1.</_>
        <_>
          2 16 13 1 2.</_></rects>
      <tilted>0</tilted></_>
    <_>
      <rects>
        <_>
          4 18 10 6 -1.</_>
        <_>
          4 21 10 3 2.</_></rects>
      <tilted>0</tilted></_>
    <_>
      <rects>
        <_>
          4 18 16 6 -1.</_>
        <_>
          4 21 16 3 2.</_></rects>
      <tilted>0</tilted></_>
    <_>
      <rects>
        <_>
          5 4 8 18 -1.</_>
        <_>
          5 10 8 6 2.</_></rects>
      <tilted>0</tilted></_>
    <_>
      <rects>
        <_>
          5 5 3 5 -1.</_>
        <_>
          6 5 1 5 2.</_></rects>
      <tilted>0</tilted></_>
    <_>
      <rects>
        <_>
          5 8 1 2 -1.</_>
        <_>
          5 9 1 1 2.</_></rects>
      <tilted>0</tilted></_>
    <_>
      <rects>
        <_>
          5 8 6 8 -1.</_>
        <_>
          8 8 3 8 2.</_></rects>
      <tilted>0</tilted></_>
    <_>
      <rects>
        <_>
          5 12 2 2 -1.</_>
        <_>
          6 12 1 2 2.</_></rects>
      <tilted>0</tilted></_>
    <_>
      <rects>
        <_>
          5 12 10 4 -1.</_>
        <_>
          5 12 5 2 2.</_>
        <_>
          10 14 5 2 2.</_></rects>
      <tilted>0</tilted></_>
    <_>
      <rects>
        <_>
          5 13 2 3 -1.</_>
        <_>
          6 13 1 3 2.</_></rects>
      <tilted>0</tilted></_>
    <_>
      <rects>
        <_>
          6 11 2 3 -1.</_>
        <_>
          7 11 1 3 2.</_></rects>
      <tilted>0</tilted></_>
    <_>
      <rects>
        <_>
          7 0 14 6 -1.</_>
        <_>
          7 3 14 3 2.</_></rects>
      <tilted>0</tilted></_>
    <_>
      <rects>
        <_>
          7 11 6 1 -1.</_>
        <_>
          10 11 3 1 2.</_></rects>
      <tilted>0</tilted></_>
    <_>
      <rects>
        <_>
          8 6 7 2 -1.</_>
        <_>
          8 7 7 1 2.</_></rects>
      <tilted>0</tilted></_>
    <_>
      <rects>
        <_>
          8 10 8 12 -1.</_>
        <_>
          8 16 8 6 2.</_></rects>
      <tilted>0</tilted></_>
    <_>
      <rects>
        <_>
          8 11 4 2 -1.</_>
        <_>
          10 11 2 2 2.</_></rects>
      <tilted>0</tilted></_>
    <_>
      <rects>
        <_>
          8 11 4 6 -1.</_>
        <_>
          8 11 2 3 2.</_>
        <_>
          10 14 2 3 2.</_></rects>
      <tilted>0</tilted></_>
    <_>
      <rects>
        <_>
          8 13 3 2 -1.</_>
        <_>
          8 14 3 1 2.</_></rects>
      <tilted>0</tilted></_>
    <_>
      <rects>
        <_>
          8 15 9 6 -1.</_>
        <_>
          8 18 9 3 2.</_></rects>
      <tilted>0</tilted></_>
    <_>
      <rects>
        <_>
          9 1 7 14 -1.</_>
        <_>
          9 8 7 7 2.</_></rects>
      <tilted>0</tilted></_>
    <_>
      <rects>
        <_>
          9 7 6 2 -1.</_>
        <_>
          9 8 6 1 2.</_></rects>
      <tilted>0</tilted></_>
    <_>
      <rects>
        <_>
          9 7 7 12 -1.</_>
        <_>
          9 13 7 6 2.</_></rects>
      <tilted>0</tilted></_>
    <_>
      <rects>
        <_>
          9 10 4 1 -1.</_>
        <_>
          11 10 2 1 2.</_></rects>
      <tilted>0</tilted></_>
    <_>
      <rects>
        <_>
          9 10 6 14 -1.</_>
        <_>
          9 17 6 7 2.</_></rects>
      <tilted>0</tilted></_>
    <_>
      <rects>
        <_>
          9 12 4 2 -1.</_>
        <_>
          9 12 2 1 2.</_>
        <_>
          11 13 2 1 2.</_></rects>
      <tilted>0</tilted></_>
    <_>
      <rects>
        <_>
          9 13 4 1 -1.</_>
        <_>
          11 13 2 1 2.</_></rects>
      <tilted>0</tilted></_>
    <_>
      <rects>
        <_>
          9 18 13 6 -1.</_>
        <_>
          9 21 13 3 2.</_></rects>
      <tilted>0</tilted></_>
    <_>
      <rects>
        <_>
          10 1 10 10 -1.</_>
        <_>
          10 1 5 5 2.</_>
        <_>
          15 6 5 5 2.</_></rects>
      <tilted>0</tilted></_>
    <_>
      <rects>
        <_>
          10 5 2 2 -1.</_>
        <_>
          10 6 2 1 2.</_></rects>
      <tilted>0</tilted></_>
    <_>
      <rects>
        <_>
          10 7 8 6 -1.</_>
        <_>
          10 7 4 3 2.</_>
        <_>
          14 10 4 3 2.</_></rects>
      <tilted>0</tilted></_>
    <_>
      <rects>
        <_>
          10 8 4 16 -1.</_>
        <_>
          10 16 4 8 2.</_></rects>
      <tilted>0</tilted></_>
    <_>
      <rects>
        <_>
          10 8 5 6 -1.</_>
        <_>
          10 11 5 3 2.</_></rects>
      <tilted>0</tilted></_>
    <_>
      <rects>
        <_>
          10 9 14 7 -1.</_>
        <_>
          17 9 7 7 2.</_></rects>
      <tilted>0</tilted></_>
    <_>
      <rects>
        <_>
          10 17 5 2 -1.</_>
        <_>
          10 18 5 1 2.</_></rects>
      <tilted>0</tilted></_>
    <_>
      <rects>
        <_>
          11 0 12 3 -1.</_>
        <_>
          15 0 4 3 2.</_></rects>
      <tilted>0</tilted></_>
    <_>
      <rects>
        <_>
          11 5 2 2 -1.</_>
        <_>
          11 6 2 1 2.</_></rects>
      <tilted>0</tilted></_>
    <_>
      <rects>
        <_>
          11 6 2 10 -1.</_>
        <_>
          12 6 1 10 2.</_></rects>
      <tilted>0</tilted></_>
    <_>
      <rects>
        <_>
          11 8 1 4 -1.</_>
        <_>
          11 10 1 2 2.</_></rects>
      <tilted>0</tilted></_>
    <_>
      <rects>
        <_>
          11 9 2 2 -1.</_>
        <_>
          12 9 1 2 2.</_></rects>
      <tilted>0</tilted></_>
    <_>
      <rects>
        <_>
          11 10 2 2 -1.</_>
        <_>
          11 10 1 1 2.</_>
        <_>
          12 11 1 1 2.</_></rects>
      <tilted>0</tilted></_>
    <_>
      <rects>
        <_>
          11 11 2 3 -1.</_>
        <_>
          12 11 1 3 2.</_></rects>
      <tilted>0</tilted></_>
    <_>
      <rects>
        <_>
          11 11 3 2 -1.</_>
        <_>
          11 12 3 1 2.</_></rects>
      <tilted>0</tilted></_>
    <_>
      <rects>
        <_>
          11 14 4 4 -1.</_>
        <_>
          11 14 2 2 2.</_>
        <_>
          13 16 2 2 2.</_></rects>
      <tilted>0</tilted></_>
    <_>
      <rects>
        <_>
          12 9 4 6 -1.</_>
        <_>
          14 9 2 6 2.</_></rects>
      <tilted>0</tilted></_>
    <_>
      <rects>
        <_>
          12 11 2 6 -1.</_>
        <_>
          12 14 2 3 2.</_></rects>
      <tilted>0</tilted></_>
    <_>
      <rects>
        <_>
          12 12 2 2 -1.</_>
        <_>
          12 12 1 1 2.</_>
        <_>
          13 13 1 1 2.</_></rects>
      <tilted>0</tilted></_>
    <_>
      <rects>
        <_>
          12 13 2 3 -1.</_>
        <_>
          13 13 1 3 2.</_></rects>
      <tilted>0</tilted></_>
    <_>
      <rects>
        <_>
          12 19 3 1 -1.</_>
        <_>
          13 19 1 1 2.</_></rects>
      <tilted>0</tilted></_>
    <_>
      <rects>
        <_>
          13 0 10 20 -1.</_>
        <_>
          13 10 10 10 2.</_></rects>
      <tilted>0</tilted></_>
    <_>
      <rects>
        <_>
          13 8 8 16 -1.</_>
        <_>
          13 8 4 8 2.</_>
        <_>
          17 16 4 8 2.</_></rects>
      <tilted>0</tilted></_>
    <_>
      <rects>
        <_>
          13 10 2 6 -1.</_>
        <_>
          14 10 1 6 2.</_></rects>
      <tilted>0</tilted></_>
    <_>
      <rects>
        <_>
          14 10 6 7 -1.</_>
        <_>
          17 10 3 7 2.</_></rects>
      <tilted>0</tilted></_>
    <_>
      <rects>
        <_>
          15 7 8 12 -1.</_>
        <_>
          15 11 8 4 2.</_></rects>
      <tilted>0</tilted></_>
    <_>
      <rects>
        <_>
          16 6 2 11 -1.</_>
        <_>
          17 6 1 11 2.</_></rects>
      <tilted>0</tilted></_>
    <_>
      <rects>
        <_>
          17 2 2 12 -1.</_>
        <_>
          17 2 1 6 2.</_>
        <_>
          18 8 1 6 2.</_></rects>
      <tilted>0</tilted></_>
    <_>
      <rects>
        <_>
          17 9 2 2 -1.</_>
        <_>
          18 9 1 2 2.</_></rects>
      <tilted>0</tilted></_>
    <_>
      <rects>
        <_>
          17 10 2 4 -1.</_>
        <_>
          18 10 1 4 2.</_></rects>
      <tilted>0</tilted></_>
    <_>
      <rects>
        <_>
          18 3 3 10 -1.</_>
        <_>
          18 8 3 5 2.</_></rects>
      <tilted>0</tilted></_>
    <_>
      <rects>
        <_>
          18 3 6 19 -1.</_>
        <_>
          21 3 3 19 2.</_></rects>
      <tilted>0</tilted></_>
    <_>
      <rects>
        <_>
          18 5 6 10 -1.</_>
        <_>
          21 5 3 10 2.</_></rects>
      <tilted>0</tilted></_>
    <_>
      <rects>
        <_>
          18 5 6 13 -1.</_>
        <_>
          21 5 3 13 2.</_></rects>
      <tilted>0</tilted></_>
    <_>
      <rects>
        <_>
          18 6 4 18 -1.</_>
        <_>
          18 15 4 9 2.</_></rects>
      <tilted>0</tilted></_>
    <_>
      <rects>
        <_>
          18 8 6 13 -1.</_>
        <_>
          21 8 3 13 2.</_></rects>
      <tilted>0</tilted></_>
    <_>
      <rects>
        <_>
          18 9 1 2 -1.</_>
        <_>
          18 10 1 1 2.</_></rects>
      <tilted>0</tilted></_>
    <_>
      <rects>
        <_>
          18 11 2 1 -1.</_>
        <_>
          19 11 1 1 2.</_></rects>
      <tilted>0</tilted></_>
    <_>
      <rects>
        <_>
          19 12 1 2 -1.</_>
        <_>
          19 13 1 1 2.</_></rects>
      <tilted>0</tilted></_>
    <_>
      <rects>
        <_>
          20 8 4 10 -1.</_>
        <_>
          22 8 2 10 2.</_></rects>
      <tilted>0</tilted></_>
    <_>
      <rects>
        <_>
          22 9 2 15 -1.</_>
        <_>
          22 14 2 5 2.</_></rects>
      <tilted>0</tilted></_></features></cascade>
</opencv_storage>
