<?xml version="1.0"?>
<opencv_storage>
<stage9>
  <maxWeakCount>5</maxWeakCount>
  <stageThreshold>-1.3613532483577728e-01</stageThreshold>
  <weakClassifiers>
    <_>
      <internalNodes>
        0 -1 117056 -8.1029068678617477e-04</internalNodes>
      <leafValues>
        -4.8387095332145691e-01 9.3452382087707520e-01</leafValues></_>
    <_>
      <internalNodes>
        0 -1 33472 4.6467803418636322e-02</internalNodes>
      <leafValues>
        -6.0971736907958984e-01 8.2456040382385254e-01</leafValues></_>
    <_>
      <internalNodes>
        0 -1 153875 1.0490439832210541e-02</internalNodes>
      <leafValues>
        -5.1177626848220825e-01 7.7845519781112671e-01</leafValues></_>
    <_>
      <internalNodes>
        0 -1 19523 -2.0362368226051331e-01</internalNodes>
      <leafValues>
        -9.0620332956314087e-01 4.4616952538490295e-01</leafValues></_>
    <_>
      <internalNodes>
        0 -1 23861 -5.0933420658111572e-02</internalNodes>
      <leafValues>
        8.3515638113021851e-01 -4.1121801733970642e-01</leafValues></_></weakClassifiers></stage9>
</opencv_storage>
