<?xml version="1.0"?>
<opencv_storage>
<stage12>
  <maxWeakCount>6</maxWeakCount>
  <stageThreshold>5.9739416837692261e-01</stageThreshold>
  <weakClassifiers>
    <_>
      <internalNodes>
        0 -1 32460 -1.8192821741104126e-01</internalNodes>
      <leafValues>
        -1. 9.1715973615646362e-01</leafValues></_>
    <_>
      <internalNodes>
        0 -1 20004 -3.6184987425804138e-01</internalNodes>
      <leafValues>
        -6.9855844974517822e-01 7.2735869884490967e-01</leafValues></_>
    <_>
      <internalNodes>
        0 -1 5156 -1.8938381224870682e-02</internalNodes>
      <leafValues>
        6.5971744060516357e-01 -5.6672966480255127e-01</leafValues></_>
    <_>
      <internalNodes>
        0 -1 126352 4.6541748452000320e-04</internalNodes>
      <leafValues>
        -3.7805190682411194e-01 7.6157975196838379e-01</leafValues></_>
    <_>
      <internalNodes>
        0 -1 152822 1.9930773414671421e-03</internalNodes>
      <leafValues>
        4.6736201643943787e-01 -6.3352739810943604e-01</leafValues></_>
    <_>
      <internalNodes>
        0 -1 131826 2.3147319443523884e-03</internalNodes>
      <leafValues>
        -3.5934680700302124e-01 8.5621243715286255e-01</leafValues></_></weakClassifiers></stage12>
</opencv_storage>
